0 -0 
5e-11 -7e-17 
1e-10 -1e-17 
1.5e-10 2e-17 
2e-10 -1e-17 
2.5e-10 -1e-17 
3e-10 4e-17 
3.5e-10 4e-17 
4e-10 4e-17 
4.5e-10 4e-17 
5e-10 -0 
5.5e-10 6e-17 
6e-10 2e-17 
6.5e-10 2e-17 
7e-10 2e-17 
7.5e-10 2e-17 
8e-10 2e-17 
8.5e-10 2e-17 
9e-10 2e-17 
9.5e-10 2e-17 
1e-09 -1e-17 
1.05e-09 -3e-17 
1.1e-09 2e-17 
1.15e-09 2e-17 
1.2e-09 2e-17 
1.25e-09 2e-17 
1.3e-09 2e-17 
1.35e-09 2e-17 
1.4e-09 2e-17 
1.45e-09 2e-17 
1.5e-09 5e-17 
1.55e-09 -0 
1.6e-09 2e-17 
1.65e-09 2e-17 
1.7e-09 2e-17 
1.75e-09 2e-17 
1.8e-09 2e-17 
1.85e-09 2e-17 
1.9e-09 2e-17 
1.95e-09 2e-17 
2e-09 6.79461e-08 
2.05e-09 1.23306e-07 
2.1e-09 7.67317e-08 
2.15e-09 5.24056e-08 
2.2e-09 3.84503e-08 
2.25e-09 2.94106e-08 
2.3e-09 2.30294e-08 
2.35e-09 1.82434e-08 
2.4e-09 1.45378e-08 
2.45e-09 1.15991e-08 
2.5e-09 9.2375e-09 
2.55e-09 7.32665e-09 
2.6e-09 5.77536e-09 
2.65e-09 4.51346e-09 
2.7e-09 3.48482e-09 
2.75e-09 2.64374e-09 
2.8e-09 1.95303e-09 
2.85e-09 1.38264e-09 
2.9e-09 9.08538e-10 
2.95e-09 5.117e-10 
3e-09 1.77152e-10 
3.05e-09 -1.0688e-10 
3.1e-09 -3.4966e-10 
3.15e-09 -5.58497e-10 
3.2e-09 -7.39186e-10 
3.25e-09 -8.96348e-10 
3.3e-09 -1.0337e-09 
3.35e-09 -1.15423e-09 
3.4e-09 -1.26038e-09 
3.45e-09 -1.35417e-09 
3.5e-09 -1.43725e-09 
3.55e-09 -1.51098e-09 
3.6e-09 -1.57652e-09 
3.65e-09 -1.63483e-09 
3.7e-09 -1.68671e-09 
3.75e-09 -1.73284e-09 
3.8e-09 -1.77382e-09 
3.85e-09 -1.81011e-09 
3.9e-09 -1.84215e-09 
3.95e-09 -1.87028e-09 
4e-09 -1.89481e-09 
4.05e-09 -1.916e-09 
4.1e-09 -1.93407e-09 
4.15e-09 -1.94923e-09 
4.2e-09 -1.96165e-09 
4.25e-09 -1.97147e-09 
4.3e-09 -1.97885e-09 
4.35e-09 -1.98391e-09 
4.4e-09 -1.98676e-09 
4.45e-09 -1.98752e-09 
4.5e-09 -1.9863e-09 
4.55e-09 -1.98321e-09 
4.6e-09 -1.97834e-09 
4.65e-09 -1.97179e-09 
4.7e-09 -1.96367e-09 
4.75e-09 -1.95409e-09 
4.8e-09 -1.94313e-09 
4.85e-09 -1.9309e-09 
4.9e-09 -1.91749e-09 
4.95e-09 -1.90302e-09 
5e-09 -1.88758e-09 
5.05e-09 -1.87126e-09 
5.1e-09 -1.85415e-09 
5.15e-09 -1.83636e-09 
5.2e-09 -1.81798e-09 
5.25e-09 -1.79908e-09 
5.3e-09 -1.77977e-09 
5.35e-09 -1.7601e-09 
5.4e-09 -1.74017e-09 
5.45e-09 -1.72005e-09 
5.5e-09 -1.69981e-09 
5.55e-09 -1.6795e-09 
5.6e-09 -1.6592e-09 
5.65e-09 -1.63895e-09 
5.7e-09 -1.61881e-09 
5.75e-09 -1.59883e-09 
5.8e-09 -1.57905e-09 
5.85e-09 -1.5595e-09 
5.9e-09 -1.54023e-09 
5.95e-09 -1.52127e-09 
6e-09 -1.50264e-09 
6.05e-09 -1.48437e-09 
6.1e-09 -1.46647e-09 
6.15e-09 -1.44898e-09 
6.2e-09 -1.43189e-09 
6.25e-09 -1.41523e-09 
6.3e-09 -1.399e-09 
6.35e-09 -1.38322e-09 
6.4e-09 -1.36788e-09 
6.45e-09 -1.353e-09 
6.5e-09 -1.33857e-09 
6.55e-09 -1.32459e-09 
6.6e-09 -1.31106e-09 
6.65e-09 -1.29798e-09 
6.7e-09 -1.28535e-09 
6.75e-09 -1.27316e-09 
6.8e-09 -1.2614e-09 
6.85e-09 -1.25008e-09 
6.9e-09 -1.23918e-09 
6.95e-09 -1.22869e-09 
7e-09 -1.2186e-09 
7.05e-09 -1.20892e-09 
7.1e-09 -1.19962e-09 
7.15e-09 -1.1907e-09 
7.2e-09 -1.18216e-09 
7.25e-09 -1.17397e-09 
7.3e-09 -1.16613e-09 
7.35e-09 -1.15863e-09 
7.4e-09 -1.15147e-09 
7.45e-09 -1.14462e-09 
7.5e-09 -1.13808e-09 
7.55e-09 -1.13184e-09 
7.6e-09 -1.1259e-09 
7.65e-09 -1.12023e-09 
7.7e-09 -1.11484e-09 
7.75e-09 -1.10971e-09 
7.8e-09 -1.10483e-09 
7.85e-09 -1.10019e-09 
7.9e-09 -1.09579e-09 
7.95e-09 -1.09161e-09 
8e-09 -1.08766e-09 
8.05e-09 -1.0839e-09 
8.1e-09 -1.08036e-09 
8.15e-09 -1.077e-09 
8.2e-09 -1.07383e-09 
8.25e-09 -1.07083e-09 
8.3e-09 -1.06801e-09 
8.35e-09 -1.06534e-09 
8.4e-09 -1.06284e-09 
8.45e-09 -1.06048e-09 
8.5e-09 -1.05827e-09 
8.55e-09 -1.05619e-09 
8.6e-09 -1.05424e-09 
8.65e-09 -1.05242e-09 
8.7e-09 -1.05071e-09 
8.75e-09 -1.04912e-09 
8.8e-09 -1.04763e-09 
8.85e-09 -1.04625e-09 
8.9e-09 -1.04497e-09 
8.95e-09 -1.04377e-09 
9e-09 -1.04267e-09 
9.05e-09 -1.04165e-09 
9.1e-09 -1.0407e-09 
9.15e-09 -1.03984e-09 
9.2e-09 -1.03904e-09 
9.25e-09 -1.03831e-09 
9.3e-09 -1.03764e-09 
9.35e-09 -1.03703e-09 
9.4e-09 -1.03648e-09 
9.45e-09 -1.03598e-09 
9.5e-09 -1.03553e-09 
9.55e-09 -1.03513e-09 
9.6e-09 -1.03476e-09 
9.65e-09 -1.03444e-09 
9.7e-09 -1.03416e-09 
9.75e-09 -1.03391e-09 
9.8e-09 -1.0337e-09 
9.85e-09 -1.03351e-09 
9.9e-09 -1.03335e-09 
9.95e-09 -1.03322e-09 
1e-08 -1.03311e-09 
