0 -0 
5e-11 2e-17 
1e-10 -0 
1.5e-10 2e-17 
2e-10 -0 
2.5e-10 -0 
3e-10 5e-17 
3.5e-10 5e-17 
4e-10 5e-17 
4.5e-10 5e-17 
5e-10 1e-17 
5.5e-10 7e-17 
6e-10 2e-17 
6.5e-10 2e-17 
7e-10 2e-17 
7.5e-10 2e-17 
8e-10 2e-17 
8.5e-10 3e-17 
9e-10 2e-17 
9.5e-10 2e-17 
1e-09 -0 
1.05e-09 -3e-17 
1.1e-09 3e-17 
1.15e-09 3e-17 
1.2e-09 2e-17 
1.25e-09 2e-17 
1.3e-09 2e-17 
1.35e-09 2e-17 
1.4e-09 2e-17 
1.45e-09 3e-17 
1.5e-09 5e-17 
1.55e-09 -0 
1.6e-09 3e-17 
1.65e-09 2e-17 
1.7e-09 3e-17 
1.75e-09 3e-17 
1.8e-09 3e-17 
1.85e-09 2e-17 
1.9e-09 3e-17 
1.95e-09 2e-17 
2e-09 1.36446e-07 
2.05e-09 1.87805e-07 
2.1e-09 1.04358e-07 
2.15e-09 6.80099e-08 
2.2e-09 4.91543e-08 
2.25e-09 3.75364e-08 
2.3e-09 2.94582e-08 
2.35e-09 2.34113e-08 
2.4e-09 1.8714e-08 
2.45e-09 1.49791e-08 
2.5e-09 1.19704e-08 
2.55e-09 9.53019e-09 
2.6e-09 7.54499e-09 
2.65e-09 5.92853e-09 
2.7e-09 4.61216e-09 
2.75e-09 3.53964e-09 
2.8e-09 2.66434e-09 
2.85e-09 1.94774e-09 
2.9e-09 1.35837e-09 
2.95e-09 8.70935e-10 
3e-09 4.65287e-10 
3.05e-09 1.25472e-10 
3.1e-09 -1.61103e-10 
3.15e-09 -4.04362e-10 
3.2e-09 -6.12116e-10 
3.25e-09 -7.90522e-10 
3.3e-09 -9.44444e-10 
3.35e-09 -1.07773e-09 
3.4e-09 -1.19344e-09 
3.45e-09 -1.29401e-09 
3.5e-09 -1.38137e-09 
3.55e-09 -1.45707e-09 
3.6e-09 -1.52232e-09 
3.65e-09 -1.57811e-09 
3.7e-09 -1.62518e-09 
3.75e-09 -1.66414e-09 
3.8e-09 -1.69547e-09 
3.85e-09 -1.71952e-09 
3.9e-09 -1.73661e-09 
3.95e-09 -1.74698e-09 
4e-09 -1.75086e-09 
4.05e-09 -1.74845e-09 
4.1e-09 -1.73996e-09 
4.15e-09 -1.72561e-09 
4.2e-09 -1.70566e-09 
4.25e-09 -1.68035e-09 
4.3e-09 -1.64999e-09 
4.35e-09 -1.6149e-09 
4.4e-09 -1.57544e-09 
4.45e-09 -1.53197e-09 
4.5e-09 -1.4849e-09 
4.55e-09 -1.43463e-09 
4.6e-09 -1.38159e-09 
4.65e-09 -1.32621e-09 
4.7e-09 -1.2689e-09 
4.75e-09 -1.21008e-09 
4.8e-09 -1.15015e-09 
4.85e-09 -1.0895e-09 
4.9e-09 -1.0285e-09 
4.95e-09 -9.6748e-10 
5e-09 -9.06761e-10 
5.05e-09 -8.46629e-10 
5.1e-09 -7.87344e-10 
5.15e-09 -7.29137e-10 
5.2e-09 -6.7221e-10 
5.25e-09 -6.16739e-10 
5.3e-09 -5.62875e-10 
5.35e-09 -5.1074e-10 
5.4e-09 -4.60437e-10 
5.45e-09 -4.12045e-10 
5.5e-09 -3.65625e-10 
5.55e-09 -3.21219e-10 
5.6e-09 -2.78852e-10 
5.65e-09 -2.38536e-10 
5.7e-09 -2.00271e-10 
5.75e-09 -1.64043e-10 
5.8e-09 -1.29831e-10 
5.85e-09 -9.76056e-11 
5.9e-09 -6.73278e-11 
5.95e-09 -3.89555e-11 
6e-09 -1.24409e-11 
6.05e-09 1.22678e-11 
6.1e-09 3.52253e-11 
6.15e-09 5.64885e-11 
6.2e-09 7.6116e-11 
6.25e-09 9.41675e-11 
6.3e-09 1.10704e-10 
6.35e-09 1.25784e-10 
6.4e-09 1.39468e-10 
6.45e-09 1.51817e-10 
6.5e-09 1.62888e-10 
6.55e-09 1.7274e-10 
6.6e-09 1.81429e-10 
6.65e-09 1.8901e-10 
6.7e-09 1.95537e-10 
6.75e-09 2.01062e-10 
6.8e-09 2.05635e-10 
6.85e-09 2.09305e-10 
6.9e-09 2.1212e-10 
6.95e-09 2.14124e-10 
7e-09 2.15362e-10 
7.05e-09 2.15876e-10 
7.1e-09 2.15705e-10 
7.15e-09 2.1489e-10 
7.2e-09 2.13466e-10 
7.25e-09 2.11469e-10 
7.3e-09 2.08934e-10 
7.35e-09 2.05893e-10 
7.4e-09 2.02376e-10 
7.45e-09 1.98414e-10 
7.5e-09 1.94035e-10 
7.55e-09 1.89265e-10 
7.6e-09 1.84131e-10 
7.65e-09 1.78656e-10 
7.7e-09 1.72864e-10 
7.75e-09 1.66778e-10 
7.8e-09 1.60418e-10 
7.85e-09 1.53803e-10 
7.9e-09 1.46955e-10 
7.95e-09 1.39889e-10 
8e-09 1.32624e-10 
8.05e-09 1.25176e-10 
8.1e-09 1.1756e-10 
8.15e-09 1.09791e-10 
8.2e-09 1.01883e-10 
8.25e-09 9.38491e-11 
8.3e-09 8.57019e-11 
8.35e-09 7.74533e-11 
8.4e-09 6.91143e-11 
8.45e-09 6.06958e-11 
8.5e-09 5.22078e-11 
8.55e-09 4.36597e-11 
8.6e-09 3.50606e-11 
8.65e-09 2.64191e-11 
8.7e-09 1.77432e-11 
8.75e-09 9.04062e-12 
8.8e-09 3.1834e-13 
8.85e-09 -8.41668e-12 
8.9e-09 -1.71581e-11 
8.95e-09 -2.58998e-11 
9e-09 -3.46361e-11 
9.05e-09 -4.33616e-11 
9.1e-09 -5.20712e-11 
9.15e-09 -6.07603e-11 
9.2e-09 -6.94243e-11 
9.25e-09 -7.8059e-11 
9.3e-09 -8.66604e-11 
9.35e-09 -9.52248e-11 
9.4e-09 -1.03748e-10 
9.45e-09 -1.12229e-10 
9.5e-09 -1.20662e-10 
9.55e-09 -1.29046e-10 
9.6e-09 -1.37377e-10 
9.65e-09 -1.45654e-10 
9.7e-09 -1.53873e-10 
9.75e-09 -1.62033e-10 
9.8e-09 -1.70132e-10 
9.85e-09 -1.78167e-10 
9.9e-09 -1.86137e-10 
9.95e-09 -1.94041e-10 
1e-08 -2.01877e-10 
