0 -0 
5e-11 -7.2e-17 
1e-10 -9e-18 
1.5e-10 1.8e-17 
2e-10 -8e-18 
2.5e-10 -1.1e-17 
3e-10 4.4e-17 
3.5e-10 4.3e-17 
4e-10 4.4e-17 
4.5e-10 4.3e-17 
5e-10 2e-18 
5.5e-10 6.3e-17 
6e-10 1.9e-17 
6.5e-10 2.1e-17 
7e-10 2e-17 
7.5e-10 1.9e-17 
8e-10 1.7e-17 
8.5e-10 1.9e-17 
9e-10 1.9e-17 
9.5e-10 1.9e-17 
1e-09 -7e-18 
1.05e-09 -3.4e-17 
1.1e-09 1.9e-17 
1.15e-09 1.9e-17 
1.2e-09 2e-17 
1.25e-09 1.8e-17 
1.3e-09 1.8e-17 
1.35e-09 2e-17 
1.4e-09 1.8e-17 
1.45e-09 1.7e-17 
1.5e-09 4.4e-17 
1.55e-09 -0 
1.6e-09 2.1e-17 
1.65e-09 2.1e-17 
1.7e-09 1.7e-17 
1.75e-09 1.8e-17 
1.8e-09 1.8e-17 
1.85e-09 2e-17 
1.9e-09 1.7e-17 
1.95e-09 1.9e-17 
2e-09 6.95369e-08 
2.05e-09 1.27925e-07 
2.1e-09 8.10599e-08 
2.15e-09 5.67409e-08 
2.2e-09 4.28119e-08 
2.25e-09 3.37319e-08 
2.3e-09 2.72413e-08 
2.35e-09 2.22984e-08 
2.4e-09 1.84119e-08 
2.45e-09 1.52883e-08 
2.5e-09 1.27507e-08 
2.55e-09 1.06786e-08 
2.6e-09 8.98165e-09 
2.65e-09 7.58757e-09 
2.7e-09 6.43694e-09 
2.75e-09 5.48095e-09 
2.8e-09 4.68019e-09 
2.85e-09 4.00343e-09 
2.9e-09 3.42626e-09 
2.95e-09 2.92975e-09 
3e-09 2.4992e-09 
3.05e-09 2.1231e-09 
3.1e-09 1.79239e-09 
3.15e-09 1.49986e-09 
3.2e-09 1.23972e-09 
3.25e-09 1.00727e-09 
3.3e-09 7.98667e-10 
3.35e-09 6.10752e-10 
3.4e-09 4.40885e-10 
3.45e-09 2.86855e-10 
3.5e-09 1.46792e-10 
3.55e-09 1.9104e-11 
3.6e-09 -9.75745e-11 
3.65e-09 -2.04422e-10 
3.7e-09 -3.02464e-10 
3.75e-09 -3.92591e-10 
3.8e-09 -4.75588e-10 
3.85e-09 -5.52146e-10 
3.9e-09 -6.22874e-10 
3.95e-09 -6.88314e-10 
4e-09 -7.48949e-10 
4.05e-09 -8.0521e-10 
4.1e-09 -8.57482e-10 
4.15e-09 -9.0611e-10 
4.2e-09 -9.51406e-10 
4.25e-09 -9.93648e-10 
4.3e-09 -1.03309e-09 
4.35e-09 -1.06996e-09 
4.4e-09 -1.10446e-09 
4.45e-09 -1.13679e-09 
4.5e-09 -1.16711e-09 
4.55e-09 -1.19557e-09 
4.6e-09 -1.22231e-09 
4.65e-09 -1.24747e-09 
4.7e-09 -1.27116e-09 
4.75e-09 -1.29348e-09 
4.8e-09 -1.31454e-09 
4.85e-09 -1.33441e-09 
4.9e-09 -1.35319e-09 
4.95e-09 -1.37095e-09 
5e-09 -1.38775e-09 
5.05e-09 -1.40366e-09 
5.1e-09 -1.41874e-09 
5.15e-09 -1.43303e-09 
5.2e-09 -1.4466e-09 
5.25e-09 -1.45948e-09 
5.3e-09 -1.47171e-09 
5.35e-09 -1.48334e-09 
5.4e-09 -1.4944e-09 
5.45e-09 -1.50493e-09 
5.5e-09 -1.51495e-09 
5.55e-09 -1.52449e-09 
5.6e-09 -1.53359e-09 
5.65e-09 -1.54225e-09 
5.7e-09 -1.55052e-09 
5.75e-09 -1.55841e-09 
5.8e-09 -1.56593e-09 
5.85e-09 -1.57312e-09 
5.9e-09 -1.57998e-09 
5.95e-09 -1.58653e-09 
6e-09 -1.59279e-09 
6.05e-09 -1.59877e-09 
6.1e-09 -1.60449e-09 
6.15e-09 -1.60995e-09 
6.2e-09 -1.61518e-09 
6.25e-09 -1.62018e-09 
6.3e-09 -1.62496e-09 
6.35e-09 -1.62953e-09 
6.4e-09 -1.6339e-09 
6.45e-09 -1.63808e-09 
6.5e-09 -1.64208e-09 
6.55e-09 -1.64591e-09 
6.6e-09 -1.64956e-09 
6.65e-09 -1.65306e-09 
6.7e-09 -1.65641e-09 
6.75e-09 -1.65961e-09 
6.8e-09 -1.66267e-09 
6.85e-09 -1.6656e-09 
6.9e-09 -1.6684e-09 
6.95e-09 -1.67107e-09 
7e-09 -1.67362e-09 
7.05e-09 -1.67606e-09 
7.1e-09 -1.67838e-09 
7.15e-09 -1.68061e-09 
7.2e-09 -1.68272e-09 
7.25e-09 -1.68474e-09 
7.3e-09 -1.68667e-09 
7.35e-09 -1.6885e-09 
7.4e-09 -1.69025e-09 
7.45e-09 -1.69191e-09 
7.5e-09 -1.69349e-09 
7.55e-09 -1.69499e-09 
7.6e-09 -1.69641e-09 
7.65e-09 -1.69776e-09 
7.7e-09 -1.69904e-09 
7.75e-09 -1.70025e-09 
7.8e-09 -1.7014e-09 
7.85e-09 -1.70248e-09 
7.9e-09 -1.70349e-09 
7.95e-09 -1.70445e-09 
8e-09 -1.70535e-09 
8.05e-09 -1.70619e-09 
8.1e-09 -1.70698e-09 
8.15e-09 -1.70772e-09 
8.2e-09 -1.7084e-09 
8.25e-09 -1.70903e-09 
8.3e-09 -1.70962e-09 
8.35e-09 -1.71016e-09 
8.4e-09 -1.71066e-09 
8.45e-09 -1.71111e-09 
8.5e-09 -1.71152e-09 
8.55e-09 -1.71188e-09 
8.6e-09 -1.71221e-09 
8.65e-09 -1.7125e-09 
8.7e-09 -1.71275e-09 
8.75e-09 -1.71297e-09 
8.8e-09 -1.71315e-09 
8.85e-09 -1.71329e-09 
8.9e-09 -1.71341e-09 
8.95e-09 -1.71349e-09 
9e-09 -1.71353e-09 
9.05e-09 -1.71355e-09 
9.1e-09 -1.71354e-09 
9.15e-09 -1.7135e-09 
9.2e-09 -1.71343e-09 
9.25e-09 -1.71333e-09 
9.3e-09 -1.7132e-09 
9.35e-09 -1.71305e-09 
9.4e-09 -1.71288e-09 
9.45e-09 -1.71268e-09 
9.5e-09 -1.71246e-09 
9.55e-09 -1.71221e-09 
9.6e-09 -1.71194e-09 
9.65e-09 -1.71165e-09 
9.7e-09 -1.71133e-09 
9.75e-09 -1.711e-09 
9.8e-09 -1.71064e-09 
9.85e-09 -1.71027e-09 
9.9e-09 -1.70988e-09 
9.95e-09 -1.70946e-09 
1e-08 -1.70903e-09 
