"x"	"y"
0	-3.43696e-14
2e-11	-3.44369e-14
4e-11	-3.444e-14
6e-11	-3.44627e-14
8e-11	-3.44255e-14
1e-10	-3.44192e-14
1.2e-10	-3.44258e-14
1.4e-10	-3.44265e-14
1.6e-10	-3.44256e-14
1.8e-10	-3.44263e-14
2e-10	-3.44251e-14
2.2e-10	-3.44261e-14
2.4e-10	-3.4377e-14
2.6e-10	-3.43763e-14
2.8e-10	-3.43707e-14
3e-10	-3.43815e-14
3.2e-10	-3.43702e-14
3.4e-10	-3.43804e-14
3.6e-10	-3.43702e-14
3.8e-10	-3.43812e-14
4e-10	-3.437e-14
4.2e-10	-3.43813e-14
4.4e-10	-3.43698e-14
4.6e-10	-3.43803e-14
4.8e-10	-3.44357e-14
5e-10	-3.44344e-14
5.2e-10	-3.44152e-14
5.4e-10	-3.4438e-14
5.6e-10	-3.44348e-14
5.8e-10	-3.44378e-14
6e-10	-3.44355e-14
6.2e-10	-3.44378e-14
6.4e-10	-3.44358e-14
6.6e-10	-3.44377e-14
6.8e-10	-3.44349e-14
7e-10	-3.44377e-14
7.2e-10	-3.44351e-14
7.4e-10	-3.44376e-14
7.6e-10	-3.44351e-14
7.8e-10	-3.44375e-14
8e-10	-3.44349e-14
8.2e-10	-3.44379e-14
8.4e-10	-3.44354e-14
8.6e-10	-3.44382e-14
8.8e-10	-3.44352e-14
9e-10	-3.44381e-14
9.2e-10	-3.44346e-14
9.4e-10	-3.44381e-14
9.6e-10	-3.4432e-14
9.8e-10	-3.44163e-14
1e-09	-3.43471e-14
1.02e-09	-3.44412e-14
1.04e-09	-3.4416e-14
1.06e-09	-3.44318e-14
1.08e-09	-3.44148e-14
1.1e-09	-3.4431e-14
1.12e-09	-3.44157e-14
1.14e-09	-3.44322e-14
1.16e-09	-3.44153e-14
1.18e-09	-3.44321e-14
1.2e-09	-3.44159e-14
1.22e-09	-3.44322e-14
1.24e-09	-3.44156e-14
1.26e-09	-3.44319e-14
1.28e-09	-3.44151e-14
1.3e-09	-3.4432e-14
1.32e-09	-3.44159e-14
1.34e-09	-3.44319e-14
1.36e-09	-3.44159e-14
1.38e-09	-3.44305e-14
1.4e-09	-3.44155e-14
1.42e-09	-3.44319e-14
1.44e-09	-3.44153e-14
1.46e-09	-3.44322e-14
1.48e-09	-3.44161e-14
1.5e-09	-3.45063e-14
1.52e-09	-3.43525e-14
1.54e-09	-3.44258e-14
1.56e-09	-3.44151e-14
1.58e-09	-3.44274e-14
1.6e-09	-3.44156e-14
1.62e-09	-3.4432e-14
1.64e-09	-3.44153e-14
1.66e-09	-3.44321e-14
1.68e-09	-3.44159e-14
1.7e-09	-3.44305e-14
1.72e-09	-3.44161e-14
1.74e-09	-3.44318e-14
1.76e-09	-3.44154e-14
1.78e-09	-3.44299e-14
1.8e-09	-3.44158e-14
1.82e-09	-3.44318e-14
1.84e-09	-3.44155e-14
1.86e-09	-3.4432e-14
1.88e-09	-3.44353e-14
1.9e-09	-3.44159e-14
1.92e-09	-3.44212e-14
1.94e-09	-3.44271e-14
1.96e-09	-3.44266e-14
1.98e-09	-3.44318e-14
2e-09	-1.35989e-07
2.02e-09	-3.17628e-07
2.04e-09	-2.78476e-07
2.06e-09	-2.39263e-07
2.08e-09	-2.01447e-07
2.1e-09	-1.65637e-07
2.12e-09	-1.32563e-07
2.14e-09	-1.03271e-07
2.16e-09	-7.89068e-08
2.18e-09	-6.01538e-08
2.2e-09	-4.68327e-08
2.22e-09	-3.79396e-08
2.24e-09	-3.21102e-08
2.26e-09	-2.81468e-08
2.28e-09	-2.52662e-08
2.3e-09	-2.30413e-08
2.32e-09	-2.12438e-08
2.34e-09	-1.97388e-08
2.36e-09	-1.8441e-08
2.38e-09	-1.72955e-08
2.4e-09	-1.62661e-08
2.42e-09	-1.53284e-08
2.44e-09	-1.44658e-08
2.46e-09	-1.3667e-08
2.48e-09	-1.2924e-08
2.5e-09	-1.22311e-08
2.52e-09	-1.15844e-08
2.54e-09	-1.09804e-08
2.56e-09	-1.04165e-08
2.58e-09	-9.89035e-09
2.6e-09	-9.39969e-09
2.62e-09	-8.94236e-09
2.64e-09	-8.51627e-09
2.66e-09	-8.11938e-09
2.68e-09	-7.74969e-09
2.7e-09	-7.4053e-09
2.72e-09	-7.08437e-09
2.74e-09	-6.78518e-09
2.76e-09	-6.50611e-09
2.78e-09	-6.24565e-09
2.8e-09	-6.00238e-09
2.82e-09	-5.77501e-09
2.84e-09	-5.56234e-09
2.86e-09	-5.36325e-09
2.88e-09	-5.17674e-09
2.9e-09	-5.00185e-09
2.92e-09	-4.83774e-09
2.94e-09	-4.68361e-09
2.96e-09	-4.53874e-09
2.98e-09	-4.40246e-09
3e-09	-4.27415e-09
3.02e-09	-4.15325e-09
3.04e-09	-4.03924e-09
3.06e-09	-3.93164e-09
3.08e-09	-3.83002e-09
3.1e-09	-3.73395e-09
3.12e-09	-3.64308e-09
3.14e-09	-3.55705e-09
3.16e-09	-3.47554e-09
3.18e-09	-3.39826e-09
3.2e-09	-3.32493e-09
3.22e-09	-3.25529e-09
3.24e-09	-3.18911e-09
3.26e-09	-3.12618e-09
3.28e-09	-3.06629e-09
3.3e-09	-3.00925e-09
3.32e-09	-2.95489e-09
3.34e-09	-2.90304e-09
3.36e-09	-2.85355e-09
3.38e-09	-2.80629e-09
3.4e-09	-2.76112e-09
3.42e-09	-2.71792e-09
3.44e-09	-2.67657e-09
3.46e-09	-2.63697e-09
3.48e-09	-2.59902e-09
3.5e-09	-2.56262e-09
3.52e-09	-2.5277e-09
3.54e-09	-2.49416e-09
3.56e-09	-2.46193e-09
3.58e-09	-2.43095e-09
3.6e-09	-2.40114e-09
3.62e-09	-2.37244e-09
3.64e-09	-2.34479e-09
3.66e-09	-2.31814e-09
3.68e-09	-2.29244e-09
3.7e-09	-2.26764e-09
3.72e-09	-2.24369e-09
3.74e-09	-2.22055e-09
3.76e-09	-2.19818e-09
3.78e-09	-2.17655e-09
3.8e-09	-2.15561e-09
3.82e-09	-2.13533e-09
3.84e-09	-2.11568e-09
3.86e-09	-2.09664e-09
3.88e-09	-2.07817e-09
3.9e-09	-2.06024e-09
3.92e-09	-2.04284e-09
3.94e-09	-2.02594e-09
3.96e-09	-2.00951e-09
3.98e-09	-1.99354e-09
4e-09	-1.978e-09
4.02e-09	-1.96288e-09
4.04e-09	-1.94816e-09
4.06e-09	-1.93382e-09
4.08e-09	-1.91985e-09
4.1e-09	-1.90622e-09
4.12e-09	-1.89293e-09
4.14e-09	-1.87997e-09
4.16e-09	-1.86731e-09
4.18e-09	-1.85495e-09
4.2e-09	-1.84288e-09
4.22e-09	-1.83108e-09
4.24e-09	-1.81955e-09
4.26e-09	-1.80827e-09
4.28e-09	-1.79723e-09
4.3e-09	-1.78643e-09
4.32e-09	-1.77586e-09
4.34e-09	-1.76551e-09
4.36e-09	-1.75537e-09
4.38e-09	-1.74543e-09
4.4e-09	-1.73569e-09
4.42e-09	-1.72614e-09
4.44e-09	-1.71677e-09
4.46e-09	-1.70758e-09
4.48e-09	-1.69856e-09
4.5e-09	-1.68971e-09
4.52e-09	-1.68102e-09
4.54e-09	-1.67249e-09
4.56e-09	-1.6641e-09
4.58e-09	-1.65587e-09
4.6e-09	-1.64777e-09
4.62e-09	-1.63981e-09
4.64e-09	-1.63199e-09
4.66e-09	-1.62429e-09
4.68e-09	-1.61672e-09
4.7e-09	-1.60927e-09
4.72e-09	-1.60194e-09
4.74e-09	-1.59473e-09
4.76e-09	-1.58763e-09
4.78e-09	-1.58064e-09
4.8e-09	-1.57375e-09
4.82e-09	-1.56697e-09
4.84e-09	-1.56029e-09
4.86e-09	-1.55371e-09
4.88e-09	-1.54722e-09
4.9e-09	-1.54083e-09
4.92e-09	-1.53453e-09
4.94e-09	-1.52831e-09
4.96e-09	-1.52219e-09
4.98e-09	-1.51614e-09
5e-09	-1.51018e-09
5.02e-09	-1.5043e-09
5.04e-09	-1.4985e-09
5.06e-09	-1.49278e-09
5.08e-09	-1.48713e-09
5.1e-09	-1.48156e-09
5.12e-09	-1.47606e-09
5.14e-09	-1.47063e-09
5.16e-09	-1.46527e-09
5.18e-09	-1.45997e-09
5.2e-09	-1.45474e-09
5.22e-09	-1.44958e-09
5.24e-09	-1.44448e-09
5.26e-09	-1.43944e-09
5.28e-09	-1.43446e-09
5.3e-09	-1.42955e-09
5.32e-09	-1.42469e-09
5.34e-09	-1.41989e-09
5.36e-09	-1.41514e-09
5.38e-09	-1.41045e-09
5.4e-09	-1.40582e-09
5.42e-09	-1.40124e-09
5.44e-09	-1.39671e-09
5.46e-09	-1.39223e-09
5.48e-09	-1.3878e-09
5.5e-09	-1.38342e-09
5.52e-09	-1.37909e-09
5.54e-09	-1.37481e-09
5.56e-09	-1.37057e-09
5.58e-09	-1.36639e-09
5.6e-09	-1.36224e-09
5.62e-09	-1.35814e-09
5.64e-09	-1.35409e-09
5.66e-09	-1.35008e-09
5.68e-09	-1.34611e-09
5.7e-09	-1.34218e-09
5.72e-09	-1.33829e-09
5.74e-09	-1.33445e-09
5.76e-09	-1.33064e-09
5.78e-09	-1.32687e-09
5.8e-09	-1.32315e-09
5.82e-09	-1.31946e-09
5.84e-09	-1.3158e-09
5.86e-09	-1.31219e-09
5.88e-09	-1.30861e-09
5.9e-09	-1.30506e-09
5.92e-09	-1.30155e-09
5.94e-09	-1.29808e-09
5.96e-09	-1.29464e-09
5.98e-09	-1.29123e-09
6e-09	-1.28786e-09
6.02e-09	-1.28452e-09
6.04e-09	-1.28121e-09
6.06e-09	-1.27793e-09
6.08e-09	-1.27469e-09
6.1e-09	-1.27147e-09
6.12e-09	-1.26829e-09
6.14e-09	-1.26513e-09
6.16e-09	-1.26201e-09
6.18e-09	-1.25891e-09
6.2e-09	-1.25585e-09
6.22e-09	-1.25281e-09
6.24e-09	-1.2498e-09
6.26e-09	-1.24682e-09
6.28e-09	-1.24386e-09
6.3e-09	-1.24093e-09
6.32e-09	-1.23803e-09
6.34e-09	-1.23516e-09
6.36e-09	-1.23231e-09
6.38e-09	-1.22948e-09
6.4e-09	-1.22669e-09
6.42e-09	-1.22391e-09
6.44e-09	-1.22116e-09
6.46e-09	-1.21844e-09
6.48e-09	-1.21574e-09
6.5e-09	-1.21306e-09
6.52e-09	-1.21041e-09
6.54e-09	-1.20778e-09
6.56e-09	-1.20517e-09
6.58e-09	-1.20258e-09
6.6e-09	-1.20002e-09
6.62e-09	-1.19748e-09
6.64e-09	-1.19496e-09
6.66e-09	-1.19246e-09
6.68e-09	-1.18999e-09
6.7e-09	-1.18753e-09
6.72e-09	-1.18509e-09
6.74e-09	-1.18268e-09
6.76e-09	-1.18028e-09
6.78e-09	-1.17791e-09
6.8e-09	-1.17556e-09
6.82e-09	-1.17322e-09
6.84e-09	-1.1709e-09
6.86e-09	-1.16861e-09
6.88e-09	-1.16633e-09
6.9e-09	-1.16407e-09
6.92e-09	-1.16183e-09
6.94e-09	-1.1596e-09
6.96e-09	-1.1574e-09
6.98e-09	-1.15521e-09
7e-09	-1.15304e-09
7.02e-09	-1.15089e-09
7.04e-09	-1.14875e-09
7.06e-09	-1.14663e-09
7.08e-09	-1.14453e-09
7.1e-09	-1.14245e-09
7.12e-09	-1.14038e-09
7.14e-09	-1.13833e-09
7.16e-09	-1.13629e-09
7.18e-09	-1.13427e-09
7.2e-09	-1.13226e-09
7.22e-09	-1.13027e-09
7.24e-09	-1.1283e-09
7.26e-09	-1.12634e-09
7.28e-09	-1.1244e-09
7.3e-09	-1.12247e-09
7.32e-09	-1.12055e-09
7.34e-09	-1.11865e-09
7.36e-09	-1.11677e-09
7.38e-09	-1.1149e-09
7.4e-09	-1.11304e-09
7.42e-09	-1.1112e-09
7.44e-09	-1.10937e-09
7.46e-09	-1.10755e-09
7.48e-09	-1.10575e-09
7.5e-09	-1.10396e-09
7.52e-09	-1.10218e-09
7.54e-09	-1.10042e-09
7.56e-09	-1.09867e-09
7.58e-09	-1.09693e-09
7.6e-09	-1.09521e-09
7.62e-09	-1.0935e-09
7.64e-09	-1.0918e-09
7.66e-09	-1.09011e-09
7.68e-09	-1.08844e-09
7.7e-09	-1.08677e-09
7.72e-09	-1.08512e-09
7.74e-09	-1.08348e-09
7.76e-09	-1.08186e-09
7.78e-09	-1.08024e-09
7.8e-09	-1.07864e-09
7.82e-09	-1.07704e-09
7.84e-09	-1.07546e-09
7.86e-09	-1.07389e-09
7.88e-09	-1.07233e-09
7.9e-09	-1.07078e-09
7.92e-09	-1.06924e-09
7.94e-09	-1.06771e-09
7.96e-09	-1.0662e-09
7.98e-09	-1.06469e-09
8e-09	-1.06319e-09
8.02e-09	-1.06171e-09
8.04e-09	-1.06023e-09
8.06e-09	-1.05877e-09
8.08e-09	-1.05731e-09
8.1e-09	-1.05586e-09
8.12e-09	-1.05443e-09
8.14e-09	-1.053e-09
8.16e-09	-1.05158e-09
8.18e-09	-1.05018e-09
8.2e-09	-1.04878e-09
8.22e-09	-1.04739e-09
8.24e-09	-1.04601e-09
8.26e-09	-1.04464e-09
8.28e-09	-1.04328e-09
8.3e-09	-1.04193e-09
8.32e-09	-1.04058e-09
8.34e-09	-1.03925e-09
8.36e-09	-1.03792e-09
8.38e-09	-1.0366e-09
8.4e-09	-1.03529e-09
8.42e-09	-1.03399e-09
8.44e-09	-1.0327e-09
8.46e-09	-1.03142e-09
8.48e-09	-1.03014e-09
8.5e-09	-1.02887e-09
8.52e-09	-1.02761e-09
8.54e-09	-1.02636e-09
8.56e-09	-1.02512e-09
8.58e-09	-1.02388e-09
8.6e-09	-1.02266e-09
8.62e-09	-1.02144e-09
8.64e-09	-1.02022e-09
8.66e-09	-1.01902e-09
8.68e-09	-1.01782e-09
8.7e-09	-1.01663e-09
8.72e-09	-1.01545e-09
8.74e-09	-1.01427e-09
8.76e-09	-1.0131e-09
8.78e-09	-1.01194e-09
8.8e-09	-1.01079e-09
8.82e-09	-1.00964e-09
8.84e-09	-1.0085e-09
8.86e-09	-1.00737e-09
8.88e-09	-1.00624e-09
8.9e-09	-1.00512e-09
8.92e-09	-1.00401e-09
8.94e-09	-1.00291e-09
8.96e-09	-1.00181e-09
8.98e-09	-1.00071e-09
9e-09	-9.99627e-10
9.02e-09	-9.98547e-10
9.04e-09	-9.97474e-10
9.06e-09	-9.96407e-10
9.08e-09	-9.95346e-10
9.1e-09	-9.94292e-10
9.12e-09	-9.93244e-10
9.14e-09	-9.92201e-10
9.16e-09	-9.91165e-10
9.18e-09	-9.90135e-10
9.2e-09	-9.89111e-10
9.22e-09	-9.88093e-10
9.24e-09	-9.8708e-10
9.26e-09	-9.86074e-10
9.28e-09	-9.85073e-10
9.3e-09	-9.84078e-10
9.32e-09	-9.83089e-10
9.34e-09	-9.82105e-10
9.36e-09	-9.81127e-10
9.38e-09	-9.80154e-10
9.4e-09	-9.79187e-10
9.42e-09	-9.78225e-10
9.44e-09	-9.77269e-10
9.46e-09	-9.76318e-10
9.48e-09	-9.75372e-10
9.5e-09	-9.74431e-10
9.52e-09	-9.73496e-10
9.54e-09	-9.72566e-10
9.56e-09	-9.71641e-10
9.58e-09	-9.70721e-10
9.6e-09	-9.69806e-10
9.62e-09	-9.68897e-10
9.64e-09	-9.67992e-10
9.66e-09	-9.67092e-10
9.68e-09	-9.66197e-10
9.7e-09	-9.65307e-10
9.72e-09	-9.64421e-10
9.74e-09	-9.63541e-10
9.76e-09	-9.62665e-10
9.78e-09	-9.61794e-10
9.8e-09	-9.60927e-10
9.82e-09	-9.60065e-10
9.84e-09	-9.59208e-10
9.86e-09	-9.58355e-10
9.88e-09	-9.57507e-10
9.9e-09	-9.56663e-10
9.92e-09	-9.55823e-10
9.94e-09	-9.54988e-10
9.96e-09	-9.54158e-10
9.98e-09	-9.53331e-10
1e-08	-9.5251e-10

