"x"	"y"
0	-1.52799e-12
5e-11	-1.89319e-12
1e-10	-1.46678e-12
1.5e-10	-1.52676e-12
2e-10	-1.52075e-12
2.5e-10	-1.52243e-12
3e-10	-1.52283e-12
3.5e-10	-1.52325e-12
4e-10	-1.52357e-12
4.5e-10	-1.52385e-12
5e-10	-1.52409e-12
5.5e-10	-1.5243e-12
6e-10	-1.52448e-12
6.5e-10	-1.52465e-12
7e-10	-1.52479e-12
7.5e-10	-1.52492e-12
8e-10	-1.52504e-12
8.5e-10	-1.52515e-12
9e-10	-1.52525e-12
9.5e-10	-1.52533e-12
1e-09	-1.52541e-12
1.05e-09	-1.52549e-12
1.1e-09	-1.52556e-12
1.15e-09	-1.52563e-12
1.2e-09	-1.52569e-12
1.25e-09	-1.52575e-12
1.3e-09	-1.5258e-12
1.35e-09	-1.52585e-12
1.4e-09	-1.5259e-12
1.45e-09	-1.52594e-12
1.5e-09	-1.52599e-12
1.55e-09	-1.52602e-12
1.6e-09	-1.52606e-12
1.65e-09	-1.52609e-12
1.7e-09	-1.52613e-12
1.75e-09	-1.52616e-12
1.8e-09	-1.52619e-12
1.85e-09	-1.52622e-12
1.9e-09	-1.52625e-12
1.95e-09	-1.52627e-12
2e-09	-3.69915e-07
2.05e-09	-9.58618e-07
2.1e-09	-9.09422e-07
2.15e-09	-8.58872e-07
2.2e-09	-8.09967e-07
2.25e-09	-7.623e-07
2.3e-09	-7.15882e-07
2.35e-09	-6.70444e-07
2.4e-09	-6.2586e-07
2.45e-09	-5.82282e-07
2.5e-09	-5.39698e-07
2.55e-09	-4.9805e-07
2.6e-09	-4.57358e-07
2.65e-09	-4.17634e-07
2.7e-09	-3.7865e-07
2.75e-09	-3.40005e-07
2.8e-09	-3.01686e-07
2.85e-09	-2.64555e-07
2.9e-09	-2.30259e-07
2.95e-09	-2.00637e-07
3e-09	-1.77511e-07
3.05e-09	-1.61246e-07
3.1e-09	-1.50316e-07
3.15e-09	-1.41996e-07
3.2e-09	-1.34357e-07
3.25e-09	-1.26826e-07
3.3e-09	-1.19325e-07
3.35e-09	-1.11847e-07
3.4e-09	-1.04373e-07
3.45e-09	-9.68894e-08
3.5e-09	-8.93932e-08
3.55e-09	-8.18862e-08
3.6e-09	-7.43775e-08
3.65e-09	-6.68855e-08
3.7e-09	-5.944e-08
3.75e-09	-5.20854e-08
3.8e-09	-4.48839e-08
3.85e-09	-3.79173e-08
3.9e-09	-3.12873e-08
3.95e-09	-2.511e-08
4e-09	-1.95066e-08
4.05e-09	-1.45881e-08
4.1e-09	-1.04389e-08
4.15e-09	-7.09985e-09
4.2e-09	-4.55718e-09
4.25e-09	-2.74064e-09
4.3e-09	-1.53367e-09
4.35e-09	-7.94102e-10
4.4e-09	-3.79342e-10
4.45e-09	-1.67675e-10
4.5e-09	-6.96071e-11
4.55e-09	-2.81818e-11
4.6e-09	-1.1957e-11
4.65e-09	-5.83979e-12
4.7e-09	-3.48549e-12
4.75e-09	-2.51006e-12
4.8e-09	-2.07175e-12
4.85e-09	-1.86528e-12
4.9e-09	-1.76672e-12
4.95e-09	-1.71983e-12
5e-09	-1.69776e-12
5.05e-09	-1.68759e-12
5.1e-09	-1.68317e-12
5.15e-09	-1.6815e-12
5.2e-09	-1.68114e-12
5.25e-09	-1.68138e-12
5.3e-09	-1.68188e-12
5.35e-09	-1.68247e-12
5.4e-09	-1.68309e-12
5.45e-09	-1.6837e-12
5.5e-09	-1.68428e-12
5.55e-09	-1.68485e-12
5.6e-09	-1.68541e-12
5.65e-09	-1.68595e-12
5.7e-09	-1.68649e-12
5.75e-09	-1.68702e-12
5.8e-09	-1.68754e-12
5.85e-09	-1.68806e-12
5.9e-09	-1.68857e-12
5.95e-09	-1.68907e-12
6e-09	-1.68956e-12
6.05e-09	-1.69004e-12
6.1e-09	-1.69053e-12
6.15e-09	-1.69099e-12
6.2e-09	-1.69145e-12
6.25e-09	-1.6919e-12
6.3e-09	-1.69235e-12
6.35e-09	-1.69278e-12
6.4e-09	-1.69321e-12
6.45e-09	-1.69363e-12
6.5e-09	-1.69403e-12
6.55e-09	-1.69444e-12
6.6e-09	-1.69484e-12
6.65e-09	-1.69524e-12
6.7e-09	-1.69562e-12
6.75e-09	-1.696e-12
6.8e-09	-1.69637e-12
6.85e-09	-1.69674e-12
6.9e-09	-1.69709e-12
6.95e-09	-1.69745e-12
7e-09	-1.69779e-12
7.05e-09	-1.69813e-12
7.1e-09	-1.69848e-12
7.15e-09	-1.69881e-12
7.2e-09	-1.69913e-12
7.25e-09	-1.69946e-12
7.3e-09	-1.69977e-12
7.35e-09	-1.70009e-12
7.4e-09	-1.7004e-12
7.45e-09	-1.7007e-12
7.5e-09	-1.70099e-12
7.55e-09	-1.70129e-12
7.6e-09	-1.70158e-12
7.65e-09	-1.70187e-12
7.7e-09	-1.70215e-12
7.75e-09	-1.70243e-12
7.8e-09	-1.7027e-12
7.85e-09	-1.70298e-12
7.9e-09	-1.70324e-12
7.95e-09	-1.70351e-12
8e-09	-1.70377e-12
8.05e-09	-1.70403e-12
8.1e-09	-1.70428e-12
8.15e-09	-1.70454e-12
8.2e-09	-1.70479e-12
8.25e-09	-1.70503e-12
8.3e-09	-1.70527e-12
8.35e-09	-1.70551e-12
8.4e-09	-1.70575e-12
8.45e-09	-1.70598e-12
8.5e-09	-1.70622e-12
8.55e-09	-1.70645e-12
8.6e-09	-1.70667e-12
8.65e-09	-1.70689e-12
8.7e-09	-1.70711e-12
8.75e-09	-1.70733e-12
8.8e-09	-1.70755e-12
8.85e-09	-1.70776e-12
8.9e-09	-1.70797e-12
8.95e-09	-1.70818e-12
9e-09	-1.70838e-12
9.05e-09	-1.70859e-12
9.1e-09	-1.7088e-12
9.15e-09	-1.709e-12
9.2e-09	-1.70919e-12
9.25e-09	-1.70939e-12
9.3e-09	-1.70958e-12
9.35e-09	-1.70977e-12
9.4e-09	-1.70996e-12
9.45e-09	-1.71015e-12
9.5e-09	-1.71034e-12
9.55e-09	-1.71052e-12
9.6e-09	-1.7107e-12
9.65e-09	-1.71088e-12
9.7e-09	-1.71106e-12
9.75e-09	-1.71124e-12
9.8e-09	-1.71141e-12
9.85e-09	-1.71158e-12
9.9e-09	-1.71176e-12
9.95e-09	-1.71192e-12
1e-08	-1.71209e-12

