"x"	"y"
0	7.83369e-12
5e-11	7.83368e-12
1e-10	7.83367e-12
1.5e-10	7.83369e-12
2e-10	7.83369e-12
2.5e-10	7.83367e-12
3e-10	7.83371e-12
3.5e-10	7.8337e-12
4e-10	7.8337e-12
4.5e-10	7.83371e-12
5e-10	7.83367e-12
5.5e-10	7.83372e-12
6e-10	7.83369e-12
6.5e-10	7.83369e-12
7e-10	7.83369e-12
7.5e-10	7.83369e-12
8e-10	7.83369e-12
8.5e-10	7.83369e-12
9e-10	7.83369e-12
9.5e-10	7.83369e-12
1e-09	7.83367e-12
1.05e-09	7.83367e-12
1.1e-09	7.83369e-12
1.15e-09	7.83369e-12
1.2e-09	7.83369e-12
1.25e-09	7.83369e-12
1.3e-09	7.83369e-12
1.35e-09	7.83369e-12
1.4e-09	7.83369e-12
1.45e-09	7.83369e-12
1.5e-09	7.83371e-12
1.55e-09	7.83368e-12
1.6e-09	7.83369e-12
1.65e-09	7.83369e-12
1.7e-09	7.83369e-12
1.75e-09	7.83369e-12
1.8e-09	7.83369e-12
1.85e-09	7.83369e-12
1.9e-09	7.83369e-12
1.95e-09	7.83369e-12
2e-09	1.05178e-07
2.05e-09	1.89887e-07
2.1e-09	9.9868e-08
2.15e-09	2.89633e-08
2.2e-09	-1.01838e-08
2.25e-09	-2.42825e-08
2.3e-09	-2.92471e-08
2.35e-09	-3.14472e-08
2.4e-09	-3.25565e-08
2.45e-09	-3.31762e-08
2.5e-09	-3.3532e-08
2.55e-09	-3.37244e-08
2.6e-09	-3.37959e-08
2.65e-09	-3.37706e-08
2.7e-09	-3.36674e-08
2.75e-09	-3.35021e-08
2.8e-09	-3.3288e-08
2.85e-09	-3.30356e-08
2.9e-09	-3.27532e-08
2.95e-09	-3.24471e-08
3e-09	-3.21224e-08
3.05e-09	-3.17831e-08
3.1e-09	-3.14323e-08
3.15e-09	-3.10726e-08
3.2e-09	-3.07061e-08
3.25e-09	-3.03344e-08
3.3e-09	-2.99589e-08
3.35e-09	-2.95807e-08
3.4e-09	-2.92008e-08
3.45e-09	-2.88199e-08
3.5e-09	-2.84388e-08
3.55e-09	-2.80579e-08
3.6e-09	-2.76778e-08
3.65e-09	-2.72988e-08
3.7e-09	-2.69213e-08
3.75e-09	-2.65455e-08
3.8e-09	-2.61718e-08
3.85e-09	-2.58004e-08
3.9e-09	-2.54313e-08
3.95e-09	-2.50648e-08
4e-09	-2.4701e-08
4.05e-09	-2.434e-08
4.1e-09	-2.3982e-08
4.15e-09	-2.36269e-08
4.2e-09	-2.32748e-08
4.25e-09	-2.29259e-08
4.3e-09	-2.25801e-08
4.35e-09	-2.22375e-08
4.4e-09	-2.18982e-08
4.45e-09	-2.15621e-08
4.5e-09	-2.12292e-08
4.55e-09	-2.08996e-08
4.6e-09	-2.05733e-08
4.65e-09	-2.02503e-08
4.7e-09	-1.99305e-08
4.75e-09	-1.96141e-08
4.8e-09	-1.93009e-08
4.85e-09	-1.8991e-08
4.9e-09	-1.86843e-08
4.95e-09	-1.83809e-08
5e-09	-1.80807e-08
5.05e-09	-1.77837e-08
5.1e-09	-1.749e-08
5.15e-09	-1.71994e-08
5.2e-09	-1.69119e-08
5.25e-09	-1.66277e-08
5.3e-09	-1.63465e-08
5.35e-09	-1.60684e-08
5.4e-09	-1.57934e-08
5.45e-09	-1.55215e-08
5.5e-09	-1.52526e-08
5.55e-09	-1.49867e-08
5.6e-09	-1.47238e-08
5.65e-09	-1.44638e-08
5.7e-09	-1.42068e-08
5.75e-09	-1.39527e-08
5.8e-09	-1.37014e-08
5.85e-09	-1.34531e-08
5.9e-09	-1.32075e-08
5.95e-09	-1.29648e-08
6e-09	-1.27249e-08
6.05e-09	-1.24877e-08
6.1e-09	-1.22533e-08
6.15e-09	-1.20215e-08
6.2e-09	-1.17925e-08
6.25e-09	-1.15661e-08
6.3e-09	-1.13424e-08
6.35e-09	-1.11212e-08
6.4e-09	-1.09027e-08
6.45e-09	-1.06867e-08
6.5e-09	-1.04732e-08
6.55e-09	-1.02623e-08
6.6e-09	-1.00538e-08
6.65e-09	-9.84785e-09
6.7e-09	-9.64431e-09
6.75e-09	-9.44317e-09
6.8e-09	-9.24443e-09
6.85e-09	-9.04806e-09
6.9e-09	-8.85404e-09
6.95e-09	-8.66234e-09
7e-09	-8.47293e-09
7.05e-09	-8.2858e-09
7.1e-09	-8.10092e-09
7.15e-09	-7.91828e-09
7.2e-09	-7.73784e-09
7.25e-09	-7.55959e-09
7.3e-09	-7.3835e-09
7.35e-09	-7.20955e-09
7.4e-09	-7.03772e-09
7.45e-09	-6.86798e-09
7.5e-09	-6.70032e-09
7.55e-09	-6.53472e-09
7.6e-09	-6.37115e-09
7.65e-09	-6.20959e-09
7.7e-09	-6.05002e-09
7.75e-09	-5.89242e-09
7.8e-09	-5.73677e-09
7.85e-09	-5.58305e-09
7.9e-09	-5.43123e-09
7.95e-09	-5.28131e-09
8e-09	-5.13325e-09
8.05e-09	-4.98704e-09
8.1e-09	-4.84266e-09
8.15e-09	-4.70009e-09
8.2e-09	-4.55931e-09
8.25e-09	-4.4203e-09
8.3e-09	-4.28303e-09
8.35e-09	-4.1475e-09
8.4e-09	-4.01369e-09
8.45e-09	-3.88157e-09
8.5e-09	-3.75112e-09
8.55e-09	-3.62233e-09
8.6e-09	-3.49518e-09
8.65e-09	-3.36966e-09
8.7e-09	-3.24573e-09
8.75e-09	-3.12339e-09
8.8e-09	-3.00262e-09
8.85e-09	-2.8834e-09
8.9e-09	-2.76572e-09
8.95e-09	-2.64955e-09
9e-09	-2.53487e-09
9.05e-09	-2.42168e-09
9.1e-09	-2.30996e-09
9.15e-09	-2.19969e-09
9.2e-09	-2.09084e-09
9.25e-09	-1.98342e-09
9.3e-09	-1.87739e-09
9.35e-09	-1.77275e-09
9.4e-09	-1.66948e-09
9.45e-09	-1.56756e-09
9.5e-09	-1.46697e-09
9.55e-09	-1.36771e-09
9.6e-09	-1.26976e-09
9.65e-09	-1.17309e-09
9.7e-09	-1.07771e-09
9.75e-09	-9.8358e-10
9.8e-09	-8.90702e-10
9.85e-09	-7.99056e-10
9.9e-09	-7.08629e-10
9.95e-09	-6.19406e-10
1e-08	-5.31372e-10

